{"layers": [{"neurons": 1, "activation": "linear"}, {"neurons": 3, "activation": "relu"}, {"neurons": 6, "activation": "relu"}, {"neurons": 6, "activation": "relu"}, {"neurons": 7, "activation": "relu"}, {"neurons": 6, "activation": "relu"}, {"neurons": 2, "activation": "relu"}, {"neurons": 6, "activation": "relu"}, {"neurons": 9, "activation": "relu"}, {"neurons": 1, "activation": "sigmoid"}], "weights": [[[0.035470226099342694, 0.23952858812257127, -0.4709092540169002]], [[0.4213720942076624, 0.9969695662328988, -0.02004547168109827, -0.33946963864391955, -0.4251762539095496, -0.22783437572888432], [0.28611612197768865, -0.8400506369068699, -0.13185492014277722, 0.4068214958472134, 0.4881294804257572, 0.7152042080961944], [-0.5509298317255131, 0.830112566655532, -0.8438068333693776, -0.25011175503373484, -0.2578824419010497, 0.26890865386604923]], [[0.03214952266803994, -0.7856431093115852, -0.059782394541092465, 0.21955916202632642, 0.9789569342427977, 0.9840485585592336], [0.4674478463122733, 0.05755496665661064, -0.4032762079556995, 0.9725382598444892, -0.9389996229401092, 0.017782202434928562], [0.23746561001077482, 0.6479960763365777, 0.30117158328434224, 0.6160615819714359, -0.19782999566800896, 0.9314960337465357], [0.44165515761416074, 0.9129131092421914, -0.23089604960646404, 0.45746443575689977, -0.15462390991776176, -0.2613112461439737], [-0.14625437143109288, -0.3434305999200469, 0.09641418940802371, -0.3274196802935312, 0.8713833492922958, 0.6117602556554387], [-0.1982497213834864, 0.7632440598252863, 0.8111583304468488, 0.1610297322999199, 0.6109108852521048, 0.1892194327066994]], [[0.9219894026141258, 0.7745141233281048, -0.22252233987233505, 0.7954319166869099, -0.4776310415084697, 0.39218146554558597, -0.3271279342128204], [0.6421334409472053, -0.17045962898288836, -0.8759288795958637, -0.8054001269632054, -0.7926633885356158, 0.8576879032611511, 0.7665434964277815], [0.5408164951644983, 0.30373047321408353, -0.8187052855663806, -0.9599160428401374, -0.654405630957869, 0.970955872058886, 0.8677622823941396], [-0.5615784065961442, -0.6131337242574231, 0.4615149369792251, 0.1664961126271629, -0.1247563625043735, 0.4746499896441403, -0.7040006063108655], [-0.6785980061025998, -0.6330162412993199, 0.30058192805335926, 0.8441312897310245, 0.8349119211386169, 0.27005143186156677, -0.7972299626600945], [0.27367788839885776, -0.8354600014545224, 0.7309999073067273, -0.36209325834992745, 0.07740215529529815, -0.2052951006434749, -0.45606411427581106]], [[0.8640177774297422, -0.8863335818629725, 0.23558297145238472, 0.8602149395517189, -0.41358337920892696, -0.5583716694595502], [-0.09548148701453263, 0.5984020104860508, -0.9794299682074683, 0.2820973002255964, 0.3230318713947957, 0.5250116385880763], [0.07586104178011799, 0.5535060101905078, 0.9592050750504524, -0.5190179244668855, 0.7195805149768548, 0.3448228544445566], [0.22820469867887794, 0.9093054717782334, 0.07817120780292264, -0.3270190998417981, 0.5285713817107154, 0.297212775446839], [0.9494678388627578, 0.5369826232868167, 0.19269102877047461, 0.66971793223413, -0.7671026003036185, -0.12895865771918658], [0.39726174085244415, -0.7078701564614063, 0.13216781081822448, 0.10905149487457955, -0.9922687493225499, 0.11952726458300389], [0.6186729579564088, -0.8432748248647124, -0.16406234406051912, -0.8100395832289824, -0.7680856328539298, 0.1807970091516642]], [[-0.45684567968429235, -0.8734287381311976], [-0.3148724742041549, -0.1674895843591837], [0.8581573752109686, -0.25786594529941786], [-0.008840087847718836, -0.22154777793669722], [-0.2947892706776456, 0.43670830896312873], [0.3141279057773667, 0.6164129277897361]], [[-0.6305061892975734, -0.11857405614550598, -0.39088035671259225, -0.9508067284703123, -0.08149519296135854, 0.9057165215194556], [-0.6908339282192795, 0.07472665411312596, 0.12080997210204969, -0.7823867104245312, 0.42451271536387214, 0.05872867178142971]], [[0.9548436636150435, -0.9526667993169686, 0.6360915122930713, 0.2513480087011086, 0.37990467663629035, -0.7910272777047924, 0.36658030041564404, 0.8574700189774831, -0.9416578376550244], [-0.930065933271939, 0.746219853162359, -0.9232764051894309, -0.5649015184087782, 0.7728281840761746, -0.6122503626353493, 0.10654943135999217, 0.6296108369974005, 0.14141538053667269], [-0.6297882736536404, 0.5605621425187866, -0.6876070065009054, 0.5273716632896635, 0.04171565086305851, 0.8951902251531343, -0.7307308290554093, 0.5265636955735593, -0.01948246493161565], [-0.8691410429242219, 0.3595172087768561, -0.7058637698565771, 0.045973308880522534, 0.33855537415784975, 0.13948037188766005, 0.969467813424822, -0.01888411564931225, 0.7801785807731443], [-0.19397644274470327, -0.327521931559583, -0.0534609050964443, 0.015084029269569088, 0.872097600842975, -0.6383691830940728, -0.14491132181395083, -0.7635732209345083, -0.9864728496746165], [0.7357991837537547, -0.8760837303399271, 0.42477750927954494, -0.9061030397232188, 0.41262785053869133, -0.2518109444493202, 0.86329537620419, -0.566268304113049, 0.1440752895928734]], [[0.8776079559460065, 0.8776079559460065, 0.8776079647216473, 0.8776079559455677, 0.8776079647220861, 0.8776079559455677, 0.8776079559460065, 0.8776079559455677, 0.8776079559455677, 0.8776079559460065, 0.8776079559460065, 0.8776079647216473, 0.8776079559455677, 0.8776079647220861, 0.8776079647220861, 0.8776079647216473, 0.8776079647220861, 0.8776079559460065, 0.8776079559455677, 0.8776079647216473, 0.8776079559455677, 0.8776079647216473, 0.8776079647216473, 0.8776079647216473, 0.8776079559460065, 0.8776079647220861, 0.8776079559460065, 0.8776079559455677, 0.8776079647216473, 0.8776079647220861], [0.00750568692301147, 0.00750568692301147, 0.007505686998064587, 0.007505686923007717, 0.00750568699806834, 0.007505686923007717, 0.00750568692301147, 0.007505686923007717, 0.007505686923007717, 0.00750568692301147, 0.00750568692301147, 0.007505686998064587, 0.007505686923007717, 0.00750568699806834, 0.00750568699806834, 0.007505686998064587, 0.00750568699806834, 0.00750568692301147, 0.007505686923007717, 0.007505686998064587, 0.007505686923007717, 0.007505686998064587, 0.007505686998064587, 0.007505686998064587, 0.00750568692301147, 0.00750568699806834, 0.00750568692301147, 0.007505686923007717, 0.007505686998064587, 0.00750568699806834], [-0.42322317444311797, -0.43779255370728754, -0.38022294103189996, -0.4232834571409157, -0.4089332659099907, -0.39448353709241124, -0.3944750889679838, -0.39451886427042065, -0.4088483169267183, -0.4524494769990455, -0.4377748605028167, -0.365914352844299, -0.36589717809379607, -0.38020882220149627, -0.4378164475267049, -0.40894146254042124, -0.42327374714807964, -0.4377643266130922, -0.36584739460813415, -0.3945220446514149, -0.4378006633971201, -0.3802282694029943, -0.337098437498702, -0.39458569781043196, -0.4088150611476136, -0.43781810365846413, -0.36581409501988826, -0.42328738368041496, -0.39457507070436953, -0.3658280283866227], [0.814896749813658, 0.814896749813658, 0.8148967579622182, 0.8148967498132506, 0.8148967579626256, 0.8148967498132506, 0.814896749813658, 0.8148967498132506, 0.8148967498132506, 0.814896749813658, 0.814896749813658, 0.8148967579622182, 0.8148967498132506, 0.8148967579626256, 0.8148967579626256, 0.8148967579622182, 0.8148967579626256, 0.814896749813658, 0.8148967498132506, 0.8148967579622182, 0.8148967498132506, 0.8148967579622182, 0.8148967579622182, 0.8148967579622182, 0.814896749813658, 0.8148967579626256, 0.814896749813658, 0.8148967498132506, 0.8148967579622182, 0.8148967579626256], [0.20379413873318386, 0.20379413873318386, 0.20379414077102334, 0.20379413873308194, 0.20379414077112523, 0.20379413873308194, 0.20379413873318386, 0.20379413873308194, 0.20379413873308194, 0.20379413873318386, 0.20379413873318386, 0.20379414077102334, 0.20379413873308194, 0.20379414077112523, 0.20379414077112523, 0.20379414077102334, 0.20379414077112523, 0.20379413873318386, 0.20379413873308194, 0.20379414077102334, 0.20379413873308194, 0.20379414077102334, 0.20379414077102334, 0.20379414077102334, 0.20379413873318386, 0.20379414077112523, 0.20379413873318386, 0.20379413873308194, 0.20379414077102334, 0.20379414077112523], [-0.5733013711995106, -0.593018550219013, -0.5151072951905802, -0.5733828641490503, -0.553962098747481, -0.5344068388297494, -0.5343954066500077, -0.5344545925760983, -0.5538472657505186, -0.6128541986257523, -0.5929946145278417, -0.49574285903864784, -0.49571964481136405, -0.5150881904899571, -0.5930508572379686, -0.5539731916318276, -0.5733697395210641, -0.5929803878838749, -0.4956523473153817, -0.5344589024112312, -0.5930295254750445, -0.5151144994887923, -0.45674518964227095, -0.5345449522861409, -0.5538022870341002, -0.5930530819489876, -0.49560730931896807, -0.5733881868262507, -0.534530577369873, -0.49562614768263896], [0.1865061108059028, 0.1865061108059028, 0.18650611267087067, 0.18650611080580956, 0.18650611267096392, 0.18650611080580956, 0.1865061108059028, 0.18650611080580956, 0.18650611080580956, 0.1865061108059028, 0.1865061108059028, 0.18650611267087067, 0.18650611080580956, 0.18650611267096392, 0.18650611267096392, 0.18650611267087067, 0.18650611267096392, 0.1865061108059028, 0.18650611080580956, 0.18650611267087067, 0.18650611080580956, 0.18650611267087067, 0.18650611267087067, 0.18650611267087067, 0.1865061108059028, 0.18650611267096392, 0.1865061108059028, 0.18650611080580956, 0.18650611267087067, 0.18650611267096392], [0.9868892878781645, 0.9868892878781645, 0.986889297746564, 0.986889287877671, 0.9868892977470575, 0.986889287877671, 0.9868892878781645, 0.986889287877671, 0.986889287877671, 0.9868892878781645, 0.9868892878781645, 0.986889297746564, 0.986889287877671, 0.9868892977470575, 0.9868892977470575, 0.986889297746564, 0.9868892977470575, 0.9868892878781645, 0.986889287877671, 0.986889297746564, 0.986889287877671, 0.986889297746564, 0.986889297746564, 0.986889297746564, 0.9868892878781645, 0.9868892977470575, 0.9868892878781645, 0.986889287877671, 0.986889297746564, 0.9868892977470575], [0.9539791572709744, 0.9539791572709744, 0.953979166810289, 0.9539791572704974, 0.953979166810766, 0.9539791572704974, 0.9539791572709744, 0.9539791572704974, 0.9539791572704974, 0.9539791572709744, 0.9539791572709744, 0.953979166810289, 0.9539791572704974, 0.953979166810766, 0.953979166810766, 0.953979166810289, 0.953979166810766, 0.9539791572709744, 0.9539791572704974, 0.953979166810289, 0.9539791572704974, 0.953979166810289, 0.953979166810289, 0.953979166810289, 0.9539791572709744, 0.953979166810766, 0.9539791572709744, 0.9539791572704974, 0.953979166810289, 0.953979166810766]]], "bias": [[[0.0, 0.0, 0.0]], [[0.0, 0.0, 0.0, 0.0, 0.0, 0.0]], [[0.0, 0.0, 0.0, 0.0, 0.0, 0.0]], [[0.0, 0.0, 0.0, 0.0, 0.0, 0.0, 0.0]], [[0.0, 0.0, 0.0, 0.0, 0.0, 0.0]], [[0.0, 0.0]], [[0.0, 0.0, 0.0, 0.0, 0.0, 0.0]], [[-0.2866093865670413, -0.0024512087774430794, 0.15508434424434905, -0.26612914798363557, -0.06655513169923263, 0.2097191123775915, -0.06090920398672504, -0.32229850640248964, -0.311550709187047]], [[-0.26799147453110334, -0.4260538776897399, 0.20238094961551448, -0.268042891964389, -0.11085504609691307, 0.045955589773099936, 0.04598734129111655, 0.04593395862880563, -0.11079696277723941, -0.5850685057082652, -0.42600793715094737, 0.35888871564914554, 0.35889551573348194, 0.20242854501263102, -0.42608363607550015, -0.11088663153073094, -0.2680356155936282, -0.426024417180995, 0.35893225569986714, 0.04590990977377527, -0.4260847693074923, 0.20237323754972866, 0.6730567466140052, 0.04585802113880997, -0.11072699556080559, -0.4260599251652891, 0.3590025991096768, -0.2680744967317747, 0.04588150201991774, 0.3589874656743574]]], "loss": "MSE"}