{"layers": [{"neurons": 3, "activation": "linear"}, {"neurons": 6, "activation": "relu"}, {"neurons": 9, "activation": "relu"}, {"neurons": 1, "activation": "linear"}], "weights": [[[0.12929717072336638, 0.5164817541132356, 0.6760423478382283, 0.9494800778054487, 0.04159641594822738, 0.11279029986213955], [-0.2792952741196436, 0.06652942084770723, 0.24165667463161755, 0.7524368854140198, -0.2704410915677983, 0.15714889572240978], [0.061617252665330816, 0.4454494900028294, -0.9896863628819552, 0.6707263348353444, 0.5380721331757465, -0.4935295721516243]], [[-0.12589580900219186, -0.8350606931162655, -0.3519434248513512, -0.3501221906569805, 0.05316504003701821, -0.22852808308716557, -0.5408680325552988, 0.22437650432632128, 0.5985422691927723], [0.3573819310927854, 0.03533039315205566, 0.9561297949856202, -0.05490010211559462, 0.6153193283370673, 0.31462085280794067, 0.1332422935615202, -0.2514040396607399, 0.17871371521469506], [0.46554727120520545, -0.885332824911645, 0.4305283476889538, -0.04182456341764018, 0.006038455143486588, 1.0384806460640637, 0.8084141221290071, 0.9088187401161831, -0.4812665007885163], [-0.06230826539534704, -0.27606979211278676, 0.8943407616906556, 0.25376072900238433, -0.011959278250770592, -0.41620491000901094, -0.2521694514052203, 0.751050785757724, -0.24934670200045536], [0.4030832109070308, 0.6134699959460185, -0.2220019115684155, -0.2665910404019368, -0.5128536161483687, 0.7649556336231279, 0.0067366794644516245, -0.33018870404420736, -0.6166704051160155], [-0.1750395406942172, -0.5260011883348701, -0.4301512123291852, -0.9221201728351524, -0.7776973948720047, -0.040279986479000884, 0.6735341095605615, -0.0893622089398294, -0.38789460974418305]], [[-0.21712149393329758], [0.2718819365702929], [0.09043656996031162], [-0.19980203368703897], [-0.6313984035479984], [-0.49440265102156267], [0.844463904672266], [0.28178694850247316], [0.5807758371575691]]], "bias": [[[-0.0034919464482414788, -0.02188558282278779, -0.00010694100211047882, 0.0024761107389967077, -0.02582385443696837, -0.04643603943521422]], [[-0.011136185180219318, 0.013230084678900777, 0.004056723975010381, -0.009202737819853807, -0.03032395999856856, -0.02406812238199799, 0.04109260483112526, 0.01661946186513274, 0.02826121367966488]], [[0.04866113889651597]]], "loss": {"name": "MSE_loss", "module": "MyLoss"}}