{"layers": [{"neurons": 3, "activation": "linear"}, {"neurons": 6, "activation": "relu"}, {"neurons": 9, "activation": "relu"}, {"neurons": 1, "activation": "linear"}], "weights": [[[0.8281293186528458, 0.7956448221406627, 0.7817901118170769, -0.2737924827104238, 0.5008391549305455, -0.28640105107345465], [-0.6205866540412657, 0.9393024356683841, 0.8636114289370714, 0.828081783467476, -0.3249727273684026, 0.6079575122954838], [-0.6196901973670501, -0.6829510804568959, 0.1230889609319549, 0.8233235680541094, 0.3962772322128544, -0.6739031692206779]], [[0.8566804584936372, -0.39582120034668905, -0.7809907480616238, 0.11244262377127025, 0.9920243730060583, -0.14354031001824688, -0.3262266453314217, -0.1021321200859102, 0.06787218682296857], [-0.8052102425325497, 0.004406897135873677, -0.35580119308866753, -0.6422093887139881, -0.07765529836349029, -0.23104000704286948, -0.9537268782104622, -0.7098373551808796, 0.3653681851912217], [0.6436159045631837, 0.7857556680624433, 0.4286955875049249, -0.35118539721457837, 0.3989880354247198, 0.37936761589107554, -0.06972984704063266, 0.15805727724052826, -0.03213264300925321], [-0.15218591565962064, -0.9291376967647718, 0.5942391210770284, 0.11634383040336464, -0.20997402930144365, -0.8450184888207998, 0.9679342545259165, 0.7245144262002187, 0.6482467278608854], [0.9810825087608072, 0.4268841294887413, 0.631749536888813, 0.8363697251266924, -0.7058733262426988, -0.6318871842784565, 0.4836060030870758, 0.4916867006651311, -0.38705168656523764], [-0.9916065446222857, 0.26253440465203826, -0.5389539217459928, -0.6758357144165564, -0.07703747190883496, -0.4175663521392725, 0.4342617564096779, -0.40730720431023565, -0.8637334004490052]], [[0.1431155704645601], [-0.6682031886185551], [0.6573284299103845], [-0.2722295591328853], [0.39122356265513486], [-0.0480868187180985], [-0.9276395083613563], [0.3416328516229122], [-0.2880531666461863]]], "bias": [[[0.021713990341990102, -0.0007730328245565601, -0.001383064341012744, -0.004334397917582655, -0.0006952576115665693, 0.030770393364477608]], [[0.0008938072475456332, -0.0018662253380915, 0.0014295674461992, -0.0008422155295892024, 0.0015175044222446908, -0.00017438883889543046, -0.0029585233376399514, 0.0007429780650928269, -0.0019311354538468764]], [[0.0036265414004146663]]], "loss": {"name": "MSE_loss", "module": "MyLoss"}}