{"layers": [{"neurons": 3, "activation": "linear"}, {"neurons": 6, "activation": "relu"}, {"neurons": 9, "activation": "relu"}, {"neurons": 1, "activation": "sigmoid"}], "weights": [[[-0.5874738359424851, -0.09827738044255274, -0.898876984528897, -0.9081119266604387, 0.23109990356991864, 0.5660788798696165], [0.7911371807082711, 0.08726050343797653, 0.7258286673457994, -0.6979654138881077, 0.6061934871897596, -0.30128488424791583], [-0.8233367964921192, -0.573924219380215, -0.1161135075293892, 0.24169063083497289, -0.8593220813166191, 0.36767897114953857]], [[0.9386857335000692, 0.7676225147938658, -0.525950613758225, 0.3980437386118614, 0.5298454569729667, 0.9593400415286072, -0.9510452097614526, 0.026042358841584342, -0.8651823549404594], [-0.9236234262310681, 0.9161382532907323, -0.27001272820201616, -0.6098458221422982, -0.9831331706181481, 0.9193717583674301, -0.2635918537055979, 0.6487254171263979, -0.1830220702144736], [0.2897325002184144, 0.8574748667065188, 0.6180845269446608, -0.7260083049487641, -0.8028416315238034, -0.2973145807262663, -0.5578984055746913, -0.8492542601657426, 0.23163448727911504], [-0.9329817035761512, 0.8080339539362689, -0.9701728026882399, -0.2794162781808718, 0.939334347583267, -0.2026903818630177, 0.24095810517998761, -0.14834850871438454, 0.2180392876818853], [0.20895730205906454, 0.2785539225014651, -0.25258498700890414, -0.7980487091566706, 0.20106501790389542, -0.5200223023236001, -0.608932988990064, -0.8932350479030554, 0.8057670733256962], [-0.03519163381592801, -0.12908079967911867, -0.18362374815025934, 0.8407694601558618, 0.2520096058234593, 0.2781358695870756, -0.7048944988026259, -0.2681205743890477, -0.8068833952849873]], [[-0.7832066896233184], [0.6353103270444288], [0.9429660992238188], [-0.041175172665944615], [-0.8092308646541162], [-0.02538269718290956], [0.3181645391766674], [-0.03629169162961832], [-0.997833514055956]]], "bias": [[[0.00040803650219073276, 0.0, -0.0016080501164939134, 0.0, -0.0038049902399571755, 0.0006783801458303956]], [[-0.005053744961455046, 0.004131515972132188, 0.0060730052152029555, -0.00026750516210312527, -0.005030148096038854, -0.00018534338506241894, 0.0020484984570943764, -0.00023366360846183867, -0.006427161020337162]], [[0.02575395061178589]]]}