{"layers": [{"neurons": 3, "activation": "linear"}, {"neurons": 6, "activation": "relu"}, {"neurons": 9, "activation": "relu"}, {"neurons": 1, "activation": "linear"}], "weights": [[[0.01486362236028067, -0.7169821391564456, -0.5462020186993768, 0.1665231078756754, -0.08630032013220554, 0.24038445669248065], [-0.660119983053013, 0.841056553880974, -0.8430504982986677, 0.6315651731631541, 0.10413253642646168, -0.7084092884719067], [0.7713693767213398, 0.47661353546874885, -0.03433741920440414, 0.034749584164677126, 0.5710197032993432, -0.7152174489335974]], [[0.4858996297120841, -0.15072316266038943, 0.5415052544731047, 0.6356116828669593, 0.4636469397933761, 0.7263425502267673, -0.42503947436514367, 0.1421295160270161, -0.7635422706515422], [0.7307014386752108, -0.015251906341132172, -0.2429104787569579, -0.09009189813290404, 0.5418190274593552, 0.23711365519733363, -0.9224628464299587, -0.1186998504857082, 0.8537424676445866], [0.4858378128477172, 0.9395245319724588, -0.46287959088950603, -0.7066164178395808, -0.52792252017351, -0.45090281051247705, 0.7105517786788773, 0.3628763763936378, 0.8511538311146873], [-0.13130598786603312, 0.23781474607885048, 0.10932831937346257, -0.8652635278664635, -0.7100023632352686, -0.6068038521794367, -0.2798363541654155, -0.5005120179743957, 0.11536035076745943], [0.692890526194657, 0.45196705879226684, 0.6522186963366897, 0.1781870256817547, 0.24013222807596257, 0.34754019102755423, -0.2855676392482862, -0.8129560277213063, -0.5912303685890142], [-0.6728868685595324, -0.9259987737212536, 0.5326523417803972, 0.11655357125044596, -0.5923733586751532, -0.47780491231889344, -0.6322658368336294, -0.950883010789588, 0.12032713954350793]], [[0.4017815874636134], [-0.3441859995241916], [-0.2995267757670157], [0.3586039980479798], [0.0945799789458775], [-0.19316727304484477], [0.13039187619210324], [0.8762273369706601], [0.9187247698168923]]], "bias": [[[-0.008117105751781092, -0.026731333996242123, 0.0, 0.004259911956553753, 0.007924305120558755, 0.0]], [[-0.002868114668733094, 0.0019704271437716594, 0.0019704473470147804, -0.002157984817219742, -0.000621157684830663, 0.0012318648347358597, -0.0007846641159692423, -0.005272906325385073, -0.0059885048859976715]], [[-0.0060177377524135]]], "loss": {"name": "MSE_loss", "module": "MyNeural", "class": "function"}}