{"layers": [{"neurons": 3, "activation": "linear"}, {"neurons": 6, "activation": "relu"}, {"neurons": 9, "activation": "relu"}, {"neurons": 2, "activation": "softmax"}], "weights": [[[-0.5219019684518869, 0.061032000186816315, 0.25315635214392174, -0.16924192286282275, 0.9493786196251742, -0.7039747440306416], [-0.11175152763740281, -0.008701876702020606, -0.45408882522250793, 0.5797637096217794, 1.0402032815165239, 0.28248742574234686], [-0.11155599211634892, -0.5317858504097628, -0.8959386292723961, -0.2626742177729578, 0.357693675455336, 0.8839370468165687]], [[0.7369509744052853, 0.3284622553953165, 0.7430720772361392, -0.5953334405503463, 0.8324918253440061, 0.9691102334692416, -0.29275810403568125, 0.8703386096700787, -0.024075467996666156], [0.40432922842868324, -0.08501875141467607, -0.369364342229892, -0.36826486356774635, -0.7681031857015552, -0.0652196861173373, 0.38261289778188967, 0.5245612807913611, 0.6573314637967314], [-0.6485714771027637, 0.0823893130942277, -0.5127378252587489, 0.39177212344062395, 0.648626617937023, 0.16712591103323993, -0.11930100067132687, -0.5383985703666643, 0.045612466971483245], [0.5753686023272864, -0.08659719614896896, -0.34414281705431893, 0.41455388861974446, -0.42248523507758423, 0.41048914520701113, -0.8555363775123949, 0.707303949026359, 0.842805200752607], [0.3030603319805567, -0.2166734361041408, -0.21682340191146504, -0.5369682286319867, 1.0244554414047164, 0.5669689675436186, 0.5889576649217497, 0.1608426840371433, -0.31189137800700456], [-0.7863899867941387, -0.23578490240282599, -0.21949751069392348, 0.8848133282127786, 0.1831707691333281, -0.33788291233607526, -0.9854649798787198, -0.1570657605333229, 0.6905540342559434]], [[0.13615986708336364, -0.2644272884982125], [-0.24256829355192533, 0.6370214765085993], [0.07141143988733845, 0.736971352229324], [0.6527141602250555, 0.12190242694042452], [0.9699861901431459, 0.961809619285833], [-0.231445755125477, -0.28765230142132536], [0.8933138511278963, 0.9377420371228129], [0.2726474982788264, 1.0095908587193487], [-0.46044185323744385, -0.7290868235063995]]], "bias": [[[0.0, 0.0, 0.0, -0.01550322066049219, 0.04796974723433403, 0.0027202434328518067]], [[-0.001309562194534862, 0.0006638431742590443, 0.0028766066117133287, 0.004314623316916238, 0.05247954110272252, -0.01636000712932907, 0.015144223011918272, 0.00842143313039675, -0.006700864195895124]], [[0.1705028938322791, 0.16791586282739315]]], "loss": {"name": "binary_cross_entropy", "module": "MyLoss"}}