{"layers": [{"neurons": 3, "activation": "linear"}, {"neurons": 6, "activation": "relu"}, {"neurons": 9, "activation": "relu"}, {"neurons": 1, "activation": "linear"}], "weights": [[[-0.41741706699039693, -0.6246094322274252, 0.07439609310449957, -0.5724159676821599, 0.13113484548633503, -0.07326576930969919], [-0.7371398668370115, -0.8121638522370016, -0.3884073242439152, -0.3915758259132255, -0.131333050038451, -0.5431906320545883], [-0.3654762514664023, 0.1370515767249465, -0.9273323424985864, 0.5335983735367862, 0.743028322057073, -0.718836659800318]], [[-0.44259977213792157, 0.3443124573293237, -0.28105042063866104, 0.4970378821278121, -0.4889882093208291, -0.28007189811237443, 0.8448906932253233, 0.11508766612924082, -0.05828664898517455], [0.317588453337994, -0.3925734401735306, -0.28282270219477046, 0.3800305853226129, 0.3379971564062121, 0.33289669806878175, -0.6632849496662678, -0.2877888222753029, -0.6904432714534716], [0.7778018908043995, -0.17738547158261664, -0.026776248328973296, 0.5420477871771625, -0.9118833303064047, -0.004894854726422482, 0.3170178992648969, 0.7149722433610763, -0.35540820136618123], [0.5141837068742562, -0.9784884118407137, 0.9338502520872309, -0.4192006189985254, 0.741305492655014, 0.09399229073013347, 0.635697071521004, 0.8375809812130127, -0.8085120931253468], [-0.1576483793718484, -0.05835377734698346, -0.20599625474536473, -0.5770450102587754, -0.6934045707455574, 0.8970992164407344, 0.4727102603474267, 0.22962570485073738, -0.3896047053578051], [-0.8592055409251611, 0.3139961652753249, 0.11126879470415263, 0.8304652192319519, 0.0995298431139624, 0.11827865547751104, 0.7227942321190695, -0.5123594366790829, -0.29038982202500496]], [[-0.36879175780944407], [0.9357688061551673], [-0.7538170517847788], [-0.721010152274492], [0.23311388816100886], [0.4763125826238216], [-0.6092974879370335], [-0.945210978493103], [0.156397529354259]]], "bias": [[[0.0, 0.0, 0.0, -0.0746491828018141, -0.006917006256744413, 0.0]], [[-0.0451290102150578, 0.11442103221799994, -0.09226668586632354, -0.08822283550660287, 0.02852382611348263, 0.05057852511225295, -0.07857333569270114, -0.11760064278085983, 0.019136808909463142]], [[0.12236004614955276]]], "loss": {"name": "MSE_loss", "module": "MyLoss"}}